/*!
 * The following copyright notice may not be removed under any circumstances.
 * 
 * Copyright:
 * (C) 2010 dot colon.
 * 
 * Full name:
 * Vegur-Regular
 * 
 * Designer:
 * arro
 */
Cufon.registerFont({"w":522,"face":{"font-family":"vegur","font-weight":400,"font-stretch":"normal","units-per-em":"1000","panose-1":"0 0 0 0 0 0 0 0 0 0","ascent":"770","descent":"-230","x-height":"10","bbox":"-51 -814 885 250","underline-thickness":"50","underline-position":"-50","unicode-range":"U+0020-U+201D"},"glyphs":{" ":{"w":226},"a":{"d":"251,-494v112,0,177,57,177,166r0,328r-81,0v-3,-24,2,-55,-5,-75v-26,52,-79,85,-143,85v-78,0,-151,-55,-151,-154v0,-132,152,-188,296,-161v3,-77,-26,-125,-105,-125v-41,0,-81,9,-130,28r-8,-64v52,-20,101,-28,150,-28xm224,-54v84,0,130,-83,120,-196v-20,-3,-42,-6,-67,-6v-98,0,-139,42,-139,106v0,59,35,96,86,96","w":499},"B":{"d":"359,-369v86,25,135,80,135,160v0,133,-104,214,-270,214v-42,0,-99,-3,-148,-11r0,-664v61,-9,116,-13,168,-13v149,0,232,58,232,157v0,87,-63,131,-117,157xm160,-382r87,0v76,0,137,-47,137,-121v0,-100,-113,-127,-224,-106r0,227xm241,-320r-81,0r0,252v121,21,242,-13,242,-127v0,-78,-54,-125,-161,-125","w":545},"b":{"d":"318,10v-71,0,-118,-30,-158,-85r-3,75r-81,0r0,-720r84,0r0,311r2,0v38,-53,91,-85,162,-85v133,0,212,97,212,243v0,153,-88,261,-218,261xm298,-430v-106,0,-138,98,-138,217v0,93,62,159,140,159v96,0,148,-74,148,-189v0,-111,-54,-187,-150,-187","w":577},"C":{"d":"38,-330v0,-224,161,-358,357,-358v75,0,140,13,178,32r-9,69v-48,-20,-108,-33,-165,-33v-150,0,-269,105,-269,283v0,182,101,279,256,279v55,0,122,-13,170,-34r9,69v-49,21,-119,33,-188,33v-194,0,-339,-121,-339,-340","w":602},"c":{"d":"129,-244v0,188,152,224,293,162r8,64v-180,73,-389,7,-389,-215v0,-170,113,-261,263,-261v53,0,101,14,131,29r-8,64v-36,-17,-80,-29,-130,-29v-95,0,-168,64,-168,186","w":464},"D":{"d":"76,-669v58,-10,122,-14,177,-14v248,0,396,107,396,323v0,246,-193,365,-398,365v-54,0,-126,-4,-175,-11r0,-663xm160,-609r0,542v225,27,397,-52,397,-283v0,-163,-104,-265,-295,-265v-37,0,-71,1,-102,6","w":687},"d":{"d":"259,-494v70,0,118,30,158,85r0,-311r84,0r0,720r-81,0v-3,-24,2,-55,-5,-75v-38,53,-92,85,-162,85v-133,0,-212,-97,-212,-243v0,-153,88,-261,218,-261xm279,-54v106,0,138,-98,138,-217v0,-93,-63,-159,-140,-159v-97,0,-148,75,-148,189v0,111,53,187,150,187","w":577},"E":{"d":"160,-68r286,0r0,68r-370,0r0,-678r361,0r0,68r-277,0r0,226r243,0r0,68r-243,0r0,248","w":491},"e":{"d":"462,-223r-337,0v2,110,65,169,162,169v42,0,95,-10,132,-28r8,64v-178,70,-386,13,-386,-215v0,-149,99,-261,234,-261v140,1,205,124,187,271xm268,-430v-80,0,-127,56,-139,141r253,0v0,-80,-40,-141,-114,-141","w":508},"F":{"d":"160,0r-84,0r0,-678r361,0r0,68r-277,0r0,236r243,0r0,68r-243,0r0,306","w":466},"f":{"d":"114,-484v-15,-185,102,-285,266,-232r-8,62v-19,-7,-39,-12,-70,-12v-81,0,-112,80,-104,182r124,0r0,64r-124,0r0,420r-84,0r0,-420r-79,0r0,-64r79,0","w":349},"G":{"d":"561,-587v-203,-86,-431,-2,-431,250v0,239,176,310,376,258r0,-197r-136,0r0,-68r220,0r0,314v-52,22,-153,35,-213,35v-200,0,-339,-119,-339,-335v0,-220,158,-358,354,-358v75,0,140,13,178,32","w":653},"g":{"d":"499,-484r0,409v0,199,-111,281,-262,281v-56,0,-111,-10,-156,-35r8,-66v158,85,349,31,324,-186v-38,53,-92,85,-162,85v-130,0,-210,-95,-210,-241v0,-153,89,-257,216,-257v70,0,118,30,158,85r3,-75r81,0xm275,-430v-93,0,-146,71,-146,185v0,111,53,185,148,185v104,0,138,-94,138,-211v0,-93,-63,-159,-140,-159","w":575},"H":{"d":"523,-678r84,0r0,678r-84,0r0,-315r-363,0r0,315r-84,0r0,-678r84,0r0,295r363,0r0,-295","w":683},"h":{"d":"160,-404r2,0v34,-50,86,-90,158,-90v103,0,157,61,157,179r0,315r-84,0r0,-289v0,-93,-19,-137,-97,-137v-75,0,-136,60,-136,160r0,266r-84,0r0,-720r84,0r0,316","w":548},"I":{"d":"160,0r-84,0r0,-678r84,0r0,678","w":236},"i":{"d":"76,0r0,-484r84,0r0,484r-84,0xm118,-555v-29,0,-52,-23,-52,-52v0,-29,23,-52,52,-52v29,0,52,23,52,52v0,29,-23,52,-52,52","w":236},"J":{"d":"317,-235v6,214,-136,276,-314,231r9,-68v127,37,221,7,221,-155r0,-451r84,0r0,443","w":388},"j":{"d":"130,-555v-29,0,-52,-23,-52,-52v0,-29,23,-52,52,-52v29,0,52,23,52,52v0,29,-23,52,-52,52xm88,-33r0,-451r84,0r0,445v0,159,-84,229,-215,245r-8,-66v92,-19,139,-54,139,-173","w":248},"K":{"d":"550,-678r-283,313r303,365r-115,0r-240,-306v-23,14,-35,39,-55,57r0,249r-84,0r0,-678r84,0r0,329r4,0r282,-329r104,0","w":552},"k":{"d":"474,-484r-199,202r222,282r-108,0r-170,-222v-24,15,-38,41,-59,60r0,162r-84,0r0,-720r84,0r0,465r3,0r202,-229r109,0","w":486},"L":{"d":"160,-64r309,0r0,64r-393,0r0,-678r84,0r0,614","w":487},"l":{"d":"160,0r-84,0r0,-720r84,0r0,720","w":236},"M":{"d":"730,-678r24,678r-84,0r-14,-392v-2,-60,-1,-119,2,-177r-3,0v-53,193,-141,369,-210,549r-81,0r-149,-372v-24,-60,-43,-117,-58,-174r-3,0v11,189,-8,378,-11,566r-78,0r24,-678r104,0r138,351v27,67,51,130,75,221r3,0v65,-215,143,-374,218,-572r103,0","w":819},"m":{"d":"666,-299v0,-83,-25,-127,-88,-127v-75,0,-123,69,-123,180r0,246r-84,0r0,-299v0,-83,-25,-127,-88,-127v-75,0,-123,71,-123,180r0,246r-84,0r0,-484r81,0v3,25,-2,58,5,80v34,-53,78,-90,147,-90v77,0,117,41,136,109r3,0v32,-65,87,-109,156,-109v96,0,146,61,146,169r0,325r-84,0r0,-299","w":821},"N":{"d":"615,-678r0,678r-97,0r-245,-380v-32,-48,-66,-104,-124,-205r-3,0v3,87,5,181,5,231r0,354r-78,0r0,-678r107,0r245,380v31,48,75,118,114,191r3,0v-3,-88,-5,-167,-5,-217r0,-354r78,0","w":688},"n":{"d":"157,-484v3,25,-2,58,5,80v34,-50,86,-90,158,-90v103,0,157,61,157,179r0,315r-84,0r0,-289v0,-93,-19,-137,-97,-137v-75,0,-136,60,-136,160r0,266r-84,0r0,-484r81,0","w":548},"O":{"d":"366,-688v180,0,328,131,328,349v0,218,-148,349,-328,349v-180,0,-328,-131,-328,-349v0,-218,148,-349,328,-349xm366,-620v-134,0,-236,100,-236,281v0,181,102,281,236,281v134,0,236,-100,236,-281v0,-181,-102,-281,-236,-281","w":732},"o":{"d":"274,-494v146,0,233,110,233,252v0,142,-87,252,-233,252v-146,0,-233,-110,-233,-252v0,-142,87,-252,233,-252xm274,-54v101,0,145,-87,145,-188v0,-101,-44,-188,-145,-188v-101,0,-145,87,-145,188v0,101,44,188,145,188","w":548},"P":{"d":"160,-610r0,276v122,15,230,-16,234,-140v3,-119,-110,-159,-234,-136xm76,0r0,-669v59,-9,117,-14,167,-14v150,0,243,73,243,196v0,169,-155,242,-326,221r0,266r-84,0","w":509,"k":{"q":31,"o":31,"J":62,"g":31,"e":31,"d":31,"c":31,"a":36}},"p":{"d":"318,10v-71,0,-118,-30,-158,-85r0,271r-84,0r0,-680r81,0v3,24,-2,55,5,75v38,-53,91,-85,162,-85v133,0,212,97,212,243v0,153,-88,261,-218,261xm298,-430v-106,0,-138,98,-138,217v0,93,62,159,140,159v96,0,148,-74,148,-189v0,-111,-54,-187,-150,-187","w":577},"Q":{"d":"694,-339v0,166,-88,281,-208,327r38,142r-82,20r-35,-143v-211,22,-369,-115,-369,-346v0,-218,148,-349,328,-349v180,0,328,131,328,349xm366,-620v-134,0,-236,100,-236,281v0,181,102,281,236,281v134,0,236,-100,236,-281v0,-181,-102,-281,-236,-281","w":732},"q":{"d":"259,-494v70,0,118,30,158,85r3,-75r81,0r0,680r-84,0r0,-271r-2,0v-38,53,-92,85,-162,85v-133,0,-212,-97,-212,-243v0,-153,88,-261,218,-261xm279,-54v106,0,138,-98,138,-217v0,-93,-63,-159,-140,-159v-97,0,-148,75,-148,189v0,111,53,187,150,187","w":577},"r":{"d":"299,-411v-17,1,-39,8,-52,14v-51,23,-87,69,-87,194r0,203r-84,0r0,-484r83,0v2,34,-3,75,3,105v25,-62,77,-112,139,-115","w":314,"k":{"y":-16,"v":-16,"t":-21}},"R":{"d":"160,-357v130,7,240,-15,240,-134v0,-113,-124,-138,-240,-117r0,251xm247,-293r-87,0r0,293r-84,0r0,-665v59,-11,120,-17,174,-17v152,0,242,60,242,174v0,92,-72,148,-135,173v62,25,83,65,99,143v13,61,35,147,51,192r-96,0v-15,-54,-34,-136,-44,-186v-12,-61,-41,-107,-120,-107","w":530},"S":{"d":"67,-507v0,-110,94,-181,217,-181v52,0,99,8,137,24r-9,68v-88,-40,-254,-36,-254,80v0,69,38,102,116,133v117,47,175,93,175,188v0,195,-230,241,-403,180r9,-69v125,45,303,43,303,-94v0,-66,-36,-98,-125,-134v-116,-47,-166,-99,-166,-195","w":495},"s":{"d":"181,-210v-69,-23,-120,-66,-120,-140v0,-84,59,-144,165,-144v49,0,83,9,108,22r-8,64v-57,-32,-180,-35,-179,44v0,41,21,68,81,89v83,30,124,69,124,135v0,144,-189,183,-312,124r8,-65v76,40,218,44,218,-44v0,-42,-27,-65,-85,-85","w":400},"T":{"d":"494,-678r0,68r-205,0r0,610r-84,0r0,-610r-203,0r0,-68r492,0","w":496,"k":{"A":84,"z":76,"y":58,"x":56,"w":73,"v":76,"u":78,"s":82,"r":78,"q":56,"o":56,"n":78,"m":78,"J":86,"g":56,"e":56,"d":56,"c":56,"a":51}},"t":{"d":"303,-484r0,64r-116,0r0,280v-7,84,59,100,122,76r9,61v-21,9,-48,13,-89,13v-78,0,-126,-41,-126,-129r0,-301r-77,0r0,-64r77,0r0,-107r84,0r0,107r116,0","w":349},"u":{"d":"391,0v-3,-25,2,-58,-5,-80v-34,50,-86,90,-158,90v-103,0,-157,-61,-157,-179r0,-315r84,0r0,289v0,93,19,137,97,137v75,0,136,-60,136,-160r0,-266r84,0r0,484r-81,0","w":548},"U":{"d":"544,-233v0,162,-105,243,-237,243v-132,0,-237,-81,-237,-224r0,-464r84,0r0,454v0,111,60,166,155,166v102,0,157,-56,157,-166r0,-454r78,0r0,445","w":611},"V":{"d":"482,-678r82,0r-236,678r-86,0r-236,-678r89,0r100,299v27,81,62,190,92,300r3,0v30,-110,65,-220,92,-300","w":565,"k":{"A":74,"z":36,"s":56,"q":46,"o":46,"J":56,"g":46,"e":46,"d":46,"c":46,"a":52}},"v":{"d":"393,-484r82,0r-191,484r-85,0r-190,-484r90,0r89,242v19,52,39,107,56,163r3,0v18,-56,37,-111,57,-163","w":481},"w":{"d":"659,-484r84,0r-166,484r-87,0r-70,-231v-17,-57,-25,-88,-41,-165r-3,0v-31,158,-70,255,-109,396r-87,0r-167,-484r91,0r74,229v18,59,34,114,47,174r3,0v27,-142,73,-270,111,-403r85,0r68,230v17,58,32,113,44,174r3,0v29,-143,79,-271,120,-404","w":753},"W":{"d":"801,-678r84,0r-204,678r-87,0r-88,-329v-14,-50,-42,-168,-58,-249r-3,0v-43,222,-93,379,-145,578r-86,0r-204,-678r90,0r94,328v23,80,47,170,64,261r3,0v38,-213,96,-391,146,-589r87,0r88,329v21,80,41,169,58,261r3,0v43,-213,104,-392,158,-590","w":890,"k":{"A":69,"z":31,"s":51,"q":41,"o":41,"J":51,"g":41,"e":41,"d":41,"c":41,"a":47}},"X":{"d":"498,-678r-197,329r211,349r-98,0r-160,-286r-2,0r-158,286r-90,0r207,-345r-201,-333r98,0r149,270r2,0r149,-270r90,0","w":510},"x":{"d":"447,-484r-169,232v57,88,123,167,183,252r-104,0r-126,-192r-3,0r-126,192r-96,0r179,-245v-54,-84,-117,-158,-173,-239r104,0r114,178r3,0r118,-178r96,0","w":470},"Y":{"d":"441,-678r90,0r-219,383r0,295r-84,0r0,-288r-222,-390r96,0r167,313r3,0","w":532,"k":{"A":92,"z":60,"u":62,"s":86,"q":78,"o":78,"n":62,"m":62,"J":82,"g":78,"d":78,"c":78,"a":86}},"y":{"d":"202,9r-193,-493r90,0r89,242v19,52,39,107,56,163r3,0v18,-56,37,-111,57,-163r89,-242r82,0r-195,494v-49,123,-121,175,-226,196r-8,-66v79,-16,134,-60,156,-131","w":481},"z":{"d":"371,-417r-249,350r0,3r263,0r0,64r-354,0r0,-67r249,-350r0,-3r-226,0r0,-64r317,0r0,67","w":419},"Z":{"d":"127,-64r388,0r0,64r-479,0r0,-72r370,-542r-341,0r0,-64r430,0r0,72","w":547},"0":{"d":"494,-327v0,192,-76,337,-233,337v-157,0,-233,-145,-233,-337v0,-192,76,-337,233,-337v157,0,233,145,233,337xm120,-327v0,165,44,269,141,269v97,0,141,-104,141,-269v0,-165,-44,-269,-141,-269v-97,0,-141,104,-141,269"},"1":{"d":"286,-658r42,0r0,658r-84,0r0,-563r-133,52r-9,-65"},"2":{"d":"461,-64r0,64r-420,0r0,-67r75,-83v195,-216,235,-262,235,-333v0,-75,-47,-117,-135,-117v-42,0,-89,14,-131,36r-9,-67v47,-24,105,-37,156,-37v136,0,211,70,211,170v0,96,-54,159,-232,359v-22,25,-46,47,-65,75r315,0"},"3":{"d":"459,-189v0,186,-243,240,-413,169r9,-67v116,47,312,47,312,-91v0,-81,-67,-120,-177,-125r0,-64v85,-6,160,-53,160,-133v0,-116,-163,-118,-258,-71r-9,-67v50,-20,106,-30,159,-30v119,0,200,62,200,154v0,91,-67,132,-142,164v89,21,159,74,159,161"},"4":{"d":"416,-224r90,0r0,64r-90,0r0,160r-84,0r0,-160r-308,0r0,-66r303,-432r89,0r0,434xm115,-224r217,0r0,-166v-2,-38,6,-101,4,-171v-30,51,-65,105,-91,144"},"5":{"d":"161,-384v28,-9,62,-21,95,-21v122,0,206,78,206,190v0,137,-107,225,-250,225v-59,0,-115,-13,-156,-33r9,-69v50,21,107,34,157,34v88,0,148,-57,148,-145v0,-122,-133,-167,-223,-108r-67,-3r10,-344r333,0r0,64r-255,0"},"6":{"d":"259,10v-129,0,-216,-111,-216,-283v0,-249,171,-390,345,-395r9,65v-146,16,-249,113,-263,271r2,0v19,-39,83,-79,148,-79v116,0,197,84,197,194v0,137,-100,227,-222,227xm257,-343v-71,0,-123,45,-123,118v0,101,59,167,132,167v72,0,123,-54,123,-145v0,-80,-51,-140,-132,-140"},"7":{"d":"473,-658r0,63r-270,595r-88,0r272,-594r-323,0r0,-64r409,0"},"8":{"d":"336,-349v94,43,139,95,139,169v0,116,-100,190,-215,190v-114,0,-214,-60,-214,-177v0,-88,69,-133,146,-174v-72,-38,-120,-86,-120,-160v0,-94,87,-167,197,-167v110,0,189,64,189,160v0,76,-54,119,-122,159xm162,-505v0,56,36,88,105,123v66,-25,101,-62,101,-116v0,-62,-40,-104,-100,-104v-63,0,-106,42,-106,97xm262,-56v71,0,123,-44,123,-117v0,-60,-35,-105,-125,-139v-84,32,-124,75,-124,134v0,74,52,122,126,122"},"9":{"d":"263,-668v129,0,216,111,216,283v0,249,-171,390,-345,395r-9,-65v146,-16,248,-113,263,-271r-2,0v-20,39,-83,79,-148,79v-116,0,-197,-83,-197,-194v0,-137,100,-227,222,-227xm265,-315v71,0,123,-45,123,-118v0,-101,-59,-167,-132,-167v-72,0,-123,54,-123,145v0,80,51,140,132,140"},":":{"d":"113,-104v31,0,57,26,57,57v0,32,-26,57,-57,57v-32,0,-57,-25,-57,-57v0,-31,25,-57,57,-57xm113,-494v31,0,57,26,57,57v0,32,-26,57,-57,57v-32,0,-57,-25,-57,-57v0,-31,25,-57,57,-57","w":226},";":{"d":"67,-61v9,-35,63,-26,105,-27v-25,75,-63,174,-92,240r-79,13v21,-66,53,-173,66,-226xm126,-494v31,0,57,26,57,57v0,32,-26,57,-57,57v-32,0,-57,-25,-57,-57v0,-31,25,-57,57,-57","w":239},"<":{"d":"109,-263r302,161r0,78r-370,-201r0,-78r370,-201r0,78r-302,160r0,3","w":474},"=":{"d":"571,-115r-492,0r0,-62r492,0r0,62xm571,-335r-492,0r0,-62r492,0r0,62","w":650},">":{"d":"365,-265r-302,-161r0,-78r370,201r0,78r-370,201r0,-78r302,-160r0,-3","w":474},"?":{"d":"217,-47v0,-31,-26,-57,-57,-57v-32,0,-57,26,-57,57v0,32,25,57,57,57v31,0,57,-25,57,-57xm360,-539v0,68,-39,116,-89,174v-67,77,-71,97,-69,183r-84,0v-2,-104,14,-145,82,-220v37,-41,68,-80,68,-128v0,-107,-146,-108,-223,-57r-9,-67v44,-23,93,-34,142,-34v113,0,182,63,182,149","w":406},"]":{"d":"38,-638r0,-62r180,0r0,787r-180,0r0,-62r116,0r0,-663r-116,0","w":310},"^":{"d":"315,-674r183,390r-76,0r-143,-318r-2,0r-145,318r-76,0r183,-390r76,0","w":554},"_":{"d":"528,111r-492,0r0,-62r492,0r0,62","w":564},"~":{"d":"309,-225v-103,-43,-117,-48,-137,-48v-31,0,-48,26,-49,75r-62,0v0,-97,45,-141,116,-141v33,0,60,10,158,52v103,43,117,48,137,48v31,0,48,-25,49,-74r62,0v0,97,-45,140,-116,140v-33,0,-60,-10,-158,-52","w":644},"}":{"d":"273,-276v-62,7,-77,21,-68,98r13,114v13,117,-54,160,-183,160r0,-62v76,0,123,-18,117,-75r-15,-129v-11,-85,17,-111,73,-138v-60,-23,-82,-53,-73,-136r15,-129v6,-57,-41,-75,-117,-75r0,-62v129,0,196,43,183,160r-13,114v-9,77,6,91,68,98r0,62","w":344},"|":{"d":"160,250r-68,0r0,-1000r68,0r0,1000","w":252},"{":{"d":"71,-276r0,-62v62,-7,77,-21,68,-98r-13,-114v-13,-117,54,-160,183,-160r0,62v-76,0,-123,18,-117,75r15,129v11,85,-17,111,-73,138v60,23,82,53,73,136r-15,129v-6,57,41,75,117,75r0,62v-129,0,-196,-43,-183,-160r13,-114v9,-77,-6,-91,-68,-98","w":344},"[":{"d":"272,-638r-112,0r0,663r112,0r0,62r-180,0r0,-787r180,0r0,62","w":310},"\\":{"d":"69,-700r313,737r-74,0r-313,-737r74,0","w":377},"!":{"d":"190,-47v0,32,-26,57,-57,57v-32,0,-57,-25,-57,-57v0,-31,25,-57,57,-57v31,0,57,26,57,57xm172,-182r-78,0r-6,-496r90,0","w":266},"@":{"d":"503,-590v175,0,295,134,295,275v0,153,-84,265,-200,265v-47,0,-73,-18,-97,-60v-75,111,-252,79,-252,-70v0,-159,92,-251,244,-251v38,0,86,9,113,23r-36,236v-11,53,16,76,51,76v60,0,117,-76,117,-199v0,-145,-102,-249,-258,-249v-185,0,-355,137,-355,347v0,174,121,285,261,285v74,0,141,-15,205,-53r6,46v-67,37,-138,53,-222,53v-174,0,-310,-129,-310,-314v0,-249,206,-410,438,-410xm512,-236r18,-131v-115,-30,-207,34,-205,177v0,57,33,91,69,91v59,0,105,-45,118,-137","w":883},"`":{"d":"33,-704v32,3,78,-9,90,15v19,38,62,106,85,140r-74,3v-25,-34,-68,-99,-101,-158","w":284},"\"":{"d":"118,-461r-60,0r-5,-223v-1,-30,54,-17,84,-20xm259,-461r-60,0r-5,-223v-1,-30,54,-17,84,-20","w":324},"#":{"d":"341,-258r93,0r0,46r-101,0r-29,177r-54,0r29,-177r-96,0r-29,177r-54,0r29,-177r-85,0r0,-46r92,0r23,-142r-93,0r0,-46r101,0r29,-177r54,0r-29,177r96,0r29,-177r54,0r-29,177r85,0r0,46r-92,0xm286,-258r23,-142r-95,0r-23,142r95,0","w":500},"$":{"d":"437,-210v0,94,-59,158,-151,175r0,99r-62,0r0,-94v-48,-2,-104,-16,-142,-34r10,-68v86,47,254,59,254,-64v0,-53,-21,-80,-107,-115v-100,-41,-141,-86,-141,-163v0,-75,55,-128,127,-144r0,-105r62,0r0,99v48,2,91,14,119,30r-9,65v-58,-33,-208,-51,-208,47v0,50,25,74,91,101v116,47,157,98,157,171"},"&":{"d":"643,0r-109,0v-19,-20,-33,-45,-54,-63v-118,115,-432,102,-434,-108v-2,-98,65,-150,165,-219v-40,-31,-88,-87,-88,-145v0,-94,77,-153,161,-153v94,0,156,60,156,142v0,68,-51,115,-122,167r169,196r2,0v22,-39,35,-88,37,-153r78,0v-4,86,-29,156,-68,213xm283,-621v-39,0,-68,30,-68,81v1,38,24,80,62,109v53,-34,74,-68,74,-109v0,-53,-26,-81,-68,-81xm138,-177v0,141,218,151,299,59r-184,-220v-84,46,-115,100,-115,161","w":675},"'":{"d":"118,-461r-60,0r-5,-223v-1,-30,54,-17,84,-20","w":183},"(":{"d":"155,-307v0,146,45,298,103,401r-62,0v-65,-102,-117,-233,-117,-401v0,-168,52,-299,117,-401r62,0v-58,103,-103,255,-103,401","w":304},")":{"d":"149,-307v0,-146,-45,-298,-103,-401r62,0v65,102,117,233,117,401v0,168,-52,299,-117,401r-62,0v58,-103,103,-255,103,-401","w":304},"*":{"d":"238,-452r-73,127r-63,-46r98,-111r-144,-30r24,-75r135,60r-15,-147r78,0v-3,48,-15,103,-13,147r133,-60r24,75v-47,12,-101,17,-144,32r98,109r-63,46r-73,-127r-2,0","w":478},"+":{"d":"330,-287r207,0r0,62r-207,0r0,225r-68,0r0,-225r-207,0r0,-62r207,0r0,-225r68,0r0,225","w":592},"-":{"d":"303,-287r0,62r-235,0r0,-62r235,0","w":371},"\/":{"d":"308,-700r74,0r-313,737r-74,0","w":377},".":{"d":"113,-104v31,0,57,26,57,57v0,32,-26,57,-57,57v-32,0,-57,-25,-57,-57v0,-31,25,-57,57,-57","w":226},",":{"d":"67,-61v9,-35,63,-26,105,-27v-25,75,-63,174,-92,240r-79,13v21,-66,53,-173,66,-226","w":228},"\u2018":{"d":"159,-478v-8,35,-63,26,-105,27v25,-75,63,-173,92,-240r79,-13v-21,66,-53,173,-66,226","w":273},"\u2019":{"d":"114,-677v9,-35,63,-26,105,-27v-25,75,-63,174,-92,240r-79,13v21,-66,53,-173,66,-226","w":273},"\u201c":{"d":"320,-478v-8,35,-63,26,-105,27v25,-75,63,-173,92,-240r79,-13v-21,66,-53,173,-66,226xm159,-478v-8,35,-63,26,-105,27v25,-75,63,-173,92,-240r79,-13v-21,66,-53,173,-66,226","w":434},"\u201d":{"d":"114,-677v9,-35,63,-26,105,-27v-25,75,-63,174,-92,240r-79,13v21,-66,53,-173,66,-226xm283,-677v9,-35,63,-26,105,-27v-25,75,-63,174,-92,240r-79,13v21,-66,53,-173,66,-226","w":442},"A":{"d":"492,0r-74,-223r-237,0r-75,223r-82,0r236,-678r85,0r236,678r-89,0xm200,-287r199,0r-4,-12v-27,-81,-64,-190,-94,-297r-3,0v-30,107,-67,217,-94,297","w":603,"k":{"y":26,"Y":92,"W":69,"w":37,"v":42,"V":74,"T":84}},"%":{"d":"626,-330v94,0,155,79,155,170v0,91,-61,170,-155,170v-94,0,-155,-79,-155,-170v0,-91,61,-170,155,-170xm626,-52v51,0,79,-43,79,-108v0,-65,-28,-108,-79,-108v-51,0,-79,43,-79,108v0,65,28,108,79,108xm216,-668v94,0,155,79,155,170v0,91,-61,170,-155,170v-94,0,-155,-79,-155,-170v0,-91,61,-170,155,-170xm216,-390v51,0,79,-43,79,-108v0,-65,-28,-108,-79,-108v-51,0,-79,43,-79,108v0,65,28,108,79,108xm619,-688r64,0r-460,708r-64,0","w":842},"\u00a5":{"d":"480,-658r-146,282r108,0r0,46r-137,0r0,67r137,0r0,46r-137,0r0,217r-84,0r0,-217r-137,0r0,-46r137,0r0,-67r-137,0r0,-46r106,0r-147,-282r94,0v49,109,77,150,126,286r3,0v50,-138,76,-175,126,-286r88,0"},"\u00cb":{"d":"160,-68r286,0r0,68r-370,0r0,-678r361,0r0,68r-277,0r0,226r243,0r0,68r-243,0r0,248xm360,-720v-26,0,-47,-21,-47,-47v0,-26,21,-47,47,-47v26,0,47,21,47,47v0,26,-21,47,-47,47xm186,-720v-26,0,-47,-21,-47,-47v0,-26,21,-47,47,-47v26,0,47,21,47,47v0,26,-21,47,-47,47","w":491},"\u00cf":{"d":"152,0r0,-678r-84,0r0,678r84,0xm197,-720v-26,0,-47,-21,-47,-47v0,-26,21,-47,47,-47v26,0,47,21,47,47v0,26,-21,47,-47,47xm23,-720v-26,0,-47,-21,-47,-47v0,-26,21,-47,47,-47v26,0,47,21,47,47v0,26,-21,47,-47,47","w":220},"\u00c4":{"d":"492,0r-74,-223r-237,0r-75,223r-82,0r236,-678r85,0r236,678r-89,0xm200,-287r199,0r-4,-12v-27,-81,-64,-190,-94,-297r-3,0v-30,107,-67,217,-94,297xm391,-720v-26,0,-47,-21,-47,-47v0,-26,21,-47,47,-47v26,0,47,21,47,47v0,26,-21,47,-47,47xm217,-720v-26,0,-47,-21,-47,-47v0,-26,21,-47,47,-47v26,0,47,21,47,47v0,26,-21,47,-47,47","w":603},"\u00dc":{"d":"544,-233v0,162,-105,243,-237,243v-132,0,-237,-81,-237,-224r0,-464r84,0r0,454v0,111,60,166,155,166v102,0,157,-56,157,-166r0,-454r78,0r0,445xm399,-720v-26,0,-47,-21,-47,-47v0,-26,21,-47,47,-47v26,0,47,21,47,47v0,26,-21,47,-47,47xm225,-720v-26,0,-47,-21,-47,-47v0,-26,21,-47,47,-47v26,0,47,21,47,47v0,26,-21,47,-47,47","w":611},"\u00d6":{"d":"366,-688v180,0,328,131,328,349v0,218,-148,349,-328,349v-180,0,-328,-131,-328,-349v0,-218,148,-349,328,-349xm366,-620v-134,0,-236,100,-236,281v0,181,102,281,236,281v134,0,236,-100,236,-281v0,-181,-102,-281,-236,-281xm453,-720v-26,0,-47,-21,-47,-47v0,-26,21,-47,47,-47v26,0,47,21,47,47v0,26,-21,47,-47,47xm279,-720v-26,0,-47,-21,-47,-47v0,-26,21,-47,47,-47v26,0,47,21,47,47v0,26,-21,47,-47,47","w":732},"\u00e4":{"d":"251,-494v112,0,177,57,177,166r0,328r-81,0v-3,-24,2,-55,-5,-75v-26,52,-79,85,-143,85v-78,0,-151,-55,-151,-154v0,-132,152,-188,296,-161v3,-77,-26,-125,-105,-125v-41,0,-81,9,-130,28r-8,-64v52,-20,101,-28,150,-28xm224,-54v84,0,130,-83,120,-196v-20,-3,-42,-6,-67,-6v-98,0,-139,42,-139,106v0,59,35,96,86,96xm343,-560v-26,0,-47,-21,-47,-47v0,-26,21,-47,47,-47v26,0,47,21,47,47v0,26,-21,47,-47,47xm169,-560v-26,0,-47,-21,-47,-47v0,-26,21,-47,47,-47v26,0,47,21,47,47v0,26,-21,47,-47,47","w":499},"\u00ef":{"d":"68,0r0,-484r84,0r0,484r-84,0xm197,-560v-26,0,-47,-21,-47,-47v0,-26,21,-47,47,-47v26,0,47,21,47,47v0,26,-21,47,-47,47xm23,-560v-26,0,-47,-21,-47,-47v0,-26,21,-47,47,-47v26,0,47,21,47,47v0,26,-21,47,-47,47","w":220},"\u00fc":{"d":"391,0v-3,-25,2,-58,-5,-80v-34,50,-86,90,-158,90v-103,0,-157,-61,-157,-179r0,-315r84,0r0,289v0,93,19,137,97,137v75,0,136,-60,136,-160r0,-266r84,0r0,484r-81,0xm364,-560v-26,0,-47,-21,-47,-47v0,-26,21,-47,47,-47v26,0,47,21,47,47v0,26,-21,47,-47,47xm190,-560v-26,0,-47,-21,-47,-47v0,-26,21,-47,47,-47v26,0,47,21,47,47v0,26,-21,47,-47,47","w":548},"\u00eb":{"d":"275,-494v140,1,205,124,187,271r-337,0v2,110,65,169,162,169v42,0,95,-10,132,-28r8,64v-178,70,-386,13,-386,-215v0,-149,99,-261,234,-261xm129,-289r253,0v0,-80,-40,-141,-114,-141v-80,0,-127,56,-139,141xm359,-560v-26,0,-47,-21,-47,-47v0,-26,21,-47,47,-47v26,0,47,21,47,47v0,26,-21,47,-47,47xm185,-560v-26,0,-47,-21,-47,-47v0,-26,21,-47,47,-47v26,0,47,21,47,47v0,26,-21,47,-47,47","w":508},"\u00ff":{"d":"202,9r-193,-493r90,0r89,242v19,52,39,107,56,163r3,0v18,-56,37,-111,57,-163r89,-242r82,0r-195,494v-49,123,-121,175,-226,196r-8,-66v79,-16,134,-60,156,-131xm338,-560v-26,0,-47,-21,-47,-47v0,-26,21,-47,47,-47v26,0,47,21,47,47v0,26,-21,47,-47,47xm164,-560v-26,0,-47,-21,-47,-47v0,-26,21,-47,47,-47v26,0,47,21,47,47v0,26,-21,47,-47,47","w":481},"\u0178":{"d":"441,-678r90,0r-219,383r0,295r-84,0r0,-288r-222,-390r96,0r167,313r3,0xm360,-720v-26,0,-47,-21,-47,-47v0,-26,21,-47,47,-47v26,0,47,21,47,47v0,26,-21,47,-47,47xm186,-720v-26,0,-47,-21,-47,-47v0,-26,21,-47,47,-47v26,0,47,21,47,47v0,26,-21,47,-47,47","w":532},"\u00f6":{"d":"274,-494v146,0,233,110,233,252v0,142,-87,252,-233,252v-146,0,-233,-110,-233,-252v0,-142,87,-252,233,-252xm274,-54v101,0,145,-87,145,-188v0,-101,-44,-188,-145,-188v-101,0,-145,87,-145,188v0,101,44,188,145,188xm360,-560v-26,0,-47,-21,-47,-47v0,-26,21,-47,47,-47v26,0,47,21,47,47v0,26,-21,47,-47,47xm186,-560v-26,0,-47,-21,-47,-47v0,-26,21,-47,47,-47v26,0,47,21,47,47v0,26,-21,47,-47,47","w":548},"\u00a0":{"w":226}}});
/*!
 * The following copyright notice may not be removed under any circumstances.
 * 
 * Copyright:
 * (C) 2010 dot colon.
 * 
 * Full name:
 * Vegur-Bold
 * 
 * Designer:
 * arro
 */
Cufon.registerFont({"w":558,"face":{"font-family":"vegur","font-weight":700,"font-stretch":"normal","units-per-em":"1000","panose-1":"0 0 0 0 0 0 0 0 0 0","ascent":"770","descent":"-230","bbox":"-61 -845 916 250","underline-thickness":"50","underline-position":"-50","unicode-range":"U+0020-U+201D"},"glyphs":{" ":{"w":196},"`":{"d":"23,-704v46,6,106,-17,126,20v21,40,66,109,98,158r-102,5v-35,-44,-92,-131,-122,-183","w":313},"@":{"d":"510,-597v180,0,304,130,304,287v0,169,-93,260,-209,260v-65,0,-102,-27,-120,-69v-22,45,-63,76,-116,76v-76,0,-133,-62,-133,-144v0,-152,98,-244,255,-244v52,0,109,14,139,28r-30,199v-9,61,9,81,45,81v50,0,87,-72,87,-161v0,-141,-83,-239,-257,-239v-172,0,-338,128,-338,320v0,167,102,270,265,270v59,0,136,-19,195,-51r9,69v-76,41,-158,56,-239,56v-162,0,-312,-128,-312,-320v0,-256,214,-418,455,-418xm494,-248r12,-83v-83,-20,-149,24,-150,127v0,41,24,66,52,66v41,0,74,-25,86,-110","w":899},"a":{"d":"254,-498v137,0,202,65,202,174r0,324r-131,0v-3,-19,2,-46,-5,-61v-25,40,-66,71,-133,71v-86,0,-157,-65,-157,-162v0,-131,150,-181,292,-159v6,-108,-145,-95,-225,-55r-14,-100v56,-22,111,-32,171,-32xm236,-93v54,0,88,-43,86,-138v-66,-11,-152,-2,-152,69v0,40,24,69,66,69","w":515},"B":{"d":"396,-363v86,26,134,75,134,154v0,142,-117,214,-280,214v-56,0,-126,-6,-184,-14r0,-659v72,-9,150,-15,200,-15v159,0,246,71,246,170v0,74,-55,123,-116,150xm200,-399v89,6,166,-4,166,-88v0,-80,-78,-102,-166,-84r0,172xm269,-296r-69,0r0,190v94,13,186,1,186,-89v0,-68,-36,-101,-117,-101","w":571},"!":{"d":"224,-69v0,44,-35,79,-79,79v-44,0,-79,-35,-79,-79v0,-44,35,-79,79,-79v44,0,79,35,79,79xm201,-198r-112,0r-8,-480r128,0","w":290},"\"":{"d":"147,-423r-98,0r-5,-245v-4,-46,77,-35,126,-36xm343,-423r-98,0r-5,-245v-4,-46,77,-35,126,-36","w":402},"#":{"d":"506,-383r-102,0r-17,109r91,0r0,74r-104,0r-26,165r-84,0r27,-165r-85,0r-26,165r-84,0r27,-165r-89,0r0,-74r101,0r18,-109r-91,0r0,-74r103,0r27,-166r83,0r-27,166r85,0r27,-166r83,0r-27,166r90,0r0,74xm303,-274r18,-109r-85,0r-17,109r84,0","w":540},"$":{"d":"480,-218v0,97,-66,164,-165,184r0,104r-98,0r0,-100v-49,-4,-103,-18,-141,-39r13,-104v58,26,117,40,168,40v52,0,85,-25,85,-66v0,-41,-29,-61,-94,-79v-104,-29,-163,-79,-163,-171v0,-83,54,-141,138,-164r0,-115r98,0r0,107v52,4,101,19,132,36r-14,104v-41,-21,-81,-36,-138,-36v-45,0,-78,20,-78,49v0,37,21,54,84,72v110,32,173,82,173,178"},"%":{"d":"630,-330v94,0,169,69,169,170v0,101,-75,170,-169,170v-94,0,-169,-69,-169,-170v0,-101,75,-170,169,-170xm630,-88v31,0,57,-25,57,-72v0,-47,-26,-72,-57,-72v-31,0,-57,25,-57,72v0,47,26,72,57,72xm220,-668v94,0,169,69,169,170v0,101,-75,170,-169,170v-94,0,-169,-69,-169,-170v0,-101,75,-170,169,-170xm220,-426v31,0,57,-25,57,-72v0,-47,-26,-72,-57,-72v-31,0,-57,25,-57,72v0,47,26,72,57,72xm606,-688r98,0r-460,708r-98,0","w":850},"&":{"d":"703,0r-180,0v-13,-14,-21,-32,-36,-44v-50,33,-123,54,-199,54v-151,0,-252,-74,-252,-197v0,-95,65,-148,161,-206v-36,-33,-75,-77,-75,-145v0,-91,88,-150,193,-150v108,0,185,70,185,151v0,73,-49,121,-120,167r126,147v23,-20,32,-71,36,-117r133,0v-4,93,-36,161,-84,213xm311,-584v-28,0,-49,22,-49,51v1,32,21,61,47,76v23,-14,51,-38,51,-72v0,-34,-20,-55,-49,-55xm302,-97v41,0,90,-13,112,-35r-143,-176v-52,23,-90,57,-91,114v0,58,52,97,122,97","w":725},"'":{"d":"147,-423r-98,0r-5,-245v-4,-46,77,-35,126,-36","w":206},"(":{"d":"275,-708v-117,271,-116,531,0,802r-98,0v-56,-93,-108,-243,-108,-401v0,-158,52,-308,108,-401r98,0","w":311},")":{"d":"36,94v117,-271,116,-531,0,-802r98,0v56,93,108,243,108,401v0,158,-52,308,-108,401r-98,0","w":311},"*":{"d":"203,-674r108,0r-21,157v52,-18,95,-46,144,-67r34,102v-50,12,-108,17,-155,32r108,113r-88,64r-75,-137r-2,0r-75,137r-88,-64r108,-115r-155,-30r34,-102r144,67","w":514},"+":{"d":"353,-305r196,0r0,98r-196,0r0,207r-112,0r0,-207r-196,0r0,-98r196,0r0,-207r112,0r0,207","w":594},",":{"d":"60,-76v13,-60,87,-49,155,-49v-27,82,-66,185,-105,277r-119,13v30,-94,57,-187,69,-241","w":261},"-":{"d":"334,-305r0,98r-276,0r0,-98r276,0","w":392},".":{"d":"125,-148v44,0,79,35,79,79v0,44,-35,79,-79,79v-44,0,-79,-35,-79,-79v0,-44,35,-79,79,-79","w":250},"\/":{"d":"308,-700r122,0r-313,737r-122,0","w":425},"0":{"d":"279,-668v159,0,259,132,259,339v0,207,-100,339,-259,339v-159,0,-259,-132,-259,-339v0,-207,100,-339,259,-339xm279,-97v81,0,115,-74,115,-232v0,-158,-34,-232,-115,-232v-81,0,-115,74,-115,232v0,158,34,232,115,232"},"1":{"d":"323,-658r67,0r0,658r-134,0r0,-505r-142,47r-13,-104"},"2":{"d":"334,-212r-106,103r0,2r277,0r0,107r-447,0r0,-105r113,-115v152,-155,188,-196,188,-254v0,-51,-37,-87,-108,-87v-43,0,-88,10,-141,31r-14,-106v65,-23,118,-32,182,-32v135,0,225,73,225,179v0,102,-50,162,-169,277"},"3":{"d":"503,-192v1,193,-290,249,-459,163r14,-106v54,25,110,38,166,38v72,0,135,-26,135,-87v0,-57,-57,-88,-152,-93r0,-104v80,-1,132,-37,132,-94v0,-105,-153,-99,-240,-59r-13,-104v59,-18,118,-30,178,-30v140,0,219,61,219,156v0,95,-77,139,-149,160v96,15,169,69,169,160"},"4":{"d":"455,-658r0,416r99,0r0,107r-99,0r0,135r-134,0r0,-135r-311,0r0,-109r249,-414r196,0xm321,-400v-2,-33,6,-100,3,-145v-26,61,-84,155,-173,303r170,0r0,-158"},"5":{"d":"205,-402v24,-10,55,-19,83,-19v138,0,225,81,225,202v2,227,-277,273,-460,192r14,-106v64,26,115,36,172,36v78,0,130,-41,130,-110v0,-57,-36,-103,-106,-103v-21,0,-49,7,-69,21r-118,-3r12,-366r395,0r0,107r-272,0"},"6":{"d":"273,12v-124,0,-230,-87,-230,-267v0,-230,173,-400,386,-411r14,106v-129,11,-220,82,-254,194v27,-26,78,-45,119,-45v127,0,209,87,209,197v0,149,-117,226,-244,226xm277,-309v-44,0,-90,30,-90,78v0,81,41,134,95,134v52,0,91,-43,91,-102v0,-70,-36,-110,-96,-110"},"7":{"d":"517,-658r0,108r-266,550r-138,0r269,-551r-321,0r0,-107r456,0"},"8":{"d":"383,-346v89,42,132,95,132,162v0,134,-119,194,-238,194v-134,0,-235,-67,-235,-184v0,-83,61,-130,140,-165v-72,-38,-111,-82,-111,-154v0,-90,82,-175,216,-175v134,0,213,77,213,167v0,72,-51,116,-117,155xm211,-491v0,38,24,68,76,95v41,-20,74,-50,74,-97v0,-41,-31,-72,-77,-72v-46,0,-73,37,-73,74xm279,-97v57,0,94,-37,94,-87v0,-49,-26,-80,-96,-110v-59,21,-93,49,-93,100v0,55,38,97,95,97"},"9":{"d":"285,-666v124,0,230,87,230,267v0,230,-173,400,-386,411r-14,-106v129,-11,220,-82,254,-194v-27,26,-78,45,-119,45v-127,0,-209,-87,-209,-197v0,-149,117,-226,244,-226xm281,-345v44,0,90,-30,90,-78v0,-81,-41,-134,-95,-134v-52,0,-91,43,-91,102v0,70,36,110,96,110"},":":{"d":"125,-148v44,0,79,35,79,79v0,44,-35,79,-79,79v-44,0,-79,-35,-79,-79v0,-44,35,-79,79,-79xm125,-336v-44,0,-79,-35,-79,-79v0,-44,35,-79,79,-79v44,0,79,35,79,79v0,44,-35,79,-79,79","w":250},"<":{"d":"138,-263r279,132r0,126r-386,-196r0,-126r386,-196r0,126r-279,131r0,3","w":470},";":{"d":"60,-76v13,-60,87,-49,155,-49v-27,82,-66,185,-105,277r-119,13v30,-94,57,-187,69,-241xm145,-336v-44,0,-79,-35,-79,-79v0,-44,35,-79,79,-79v44,0,79,35,79,79v0,44,-35,79,-79,79","w":270},"[":{"d":"320,-602r-126,0r0,591r126,0r0,98r-238,0r0,-787r238,0r0,98","w":348},"\\":{"d":"117,-700r313,737r-122,0r-313,-737r122,0","w":425},"]":{"d":"28,-602r0,-98r238,0r0,787r-238,0r0,-98r126,0r0,-591r-126,0","w":348},"^":{"d":"347,-674r176,390r-123,0r-114,-272r-3,0r-115,272r-122,0r176,-390r125,0","w":569},"_":{"d":"553,143r-527,0r0,-98r527,0r0,98","w":579},"~":{"d":"354,-202v-116,-53,-132,-59,-158,-59v-26,0,-47,25,-47,91r-98,0v0,-120,59,-189,165,-189v53,0,93,13,184,55v116,53,132,59,158,59v26,0,47,-24,47,-91r98,0v0,121,-59,189,-165,189v-53,0,-93,-13,-184,-55","w":754},"}":{"d":"97,-195v-10,-68,39,-101,97,-113v-63,-7,-105,-46,-97,-111r14,-118v5,-48,-26,-75,-86,-75r0,-98v126,0,213,46,200,160r-14,113v-7,67,27,79,81,81r0,98v-54,2,-89,14,-81,81r14,113v13,114,-74,160,-200,160r0,-98v60,0,91,-27,86,-75","w":353},"|":{"d":"194,250r-112,0r0,-1000r112,0r0,1000","w":276},"{":{"d":"159,-306v63,7,104,46,97,111r-14,118v-5,48,26,75,86,75r0,98v-126,0,-213,-46,-200,-160r14,-113v7,-67,-27,-79,-81,-81r0,-98v54,-2,89,-14,81,-81r-14,-113v-13,-114,74,-160,200,-160r0,98v-60,0,-91,27,-86,75r14,118v9,68,-39,101,-97,113","w":353},"z":{"d":"58,-488r363,0r0,102r-228,283r236,0r0,103r-398,0r0,-99r231,-286r-204,0r0,-103","w":458},"y":{"d":"339,-35v-69,181,-148,231,-274,241r-14,-102v82,-10,117,-40,137,-102r-189,-490r144,0v39,123,89,236,116,371r3,0v28,-135,78,-247,117,-371r135,0","w":510},"Z":{"d":"176,-103r354,0r0,103r-506,0r0,-112r336,-463r-304,0r0,-103r456,0r0,111","w":552},"=":{"d":"596,-314r-527,0r0,-98r527,0r0,98xm596,-100r-527,0r0,-98r527,0r0,98","w":665},">":{"d":"332,-263r0,-3r-279,-131r0,-126r386,196r0,126r-386,196r0,-126","w":470},"?":{"d":"260,-69v0,-44,-35,-79,-79,-79v-44,0,-79,35,-79,79v0,44,35,79,79,79v44,0,79,-35,79,-79xm406,-520v0,77,-37,119,-114,208v-43,49,-49,64,-48,114r-130,0v-2,-78,13,-114,77,-182v45,-48,71,-88,71,-130v0,-37,-28,-71,-96,-71v-44,0,-85,9,-126,32r-14,-104v53,-24,114,-35,179,-35v120,0,201,69,201,168","w":442},"\u201d":{"d":"107,-655v13,-60,87,-49,155,-49v-27,82,-66,185,-105,277r-119,13v30,-94,57,-187,69,-241xm322,-655v13,-60,87,-49,155,-49v-27,82,-66,185,-105,277r-119,13v30,-94,57,-187,69,-241","w":521},"\u2019":{"d":"107,-655v13,-60,87,-49,155,-49v-27,82,-66,185,-105,277r-119,13v30,-94,57,-187,69,-241","w":306},"\u201c":{"d":"414,-463v-13,60,-87,49,-155,49v27,-82,66,-185,105,-277r119,-13v-30,94,-58,188,-69,241xm199,-463v-13,60,-87,49,-155,49v27,-82,66,-185,105,-277r119,-13v-30,94,-58,188,-69,241","w":521},"\u2018":{"d":"199,-463v-13,60,-87,49,-155,49v27,-82,66,-185,105,-277r119,-13v-30,94,-58,188,-69,241","w":306},"q":{"d":"403,-57v-49,43,-89,67,-161,67v-133,0,-210,-104,-210,-245v0,-146,86,-263,216,-263v70,0,109,24,155,67r3,-57r131,0r0,684r-134,0r0,-253xm293,-93v79,1,110,-67,110,-162v0,-86,-43,-140,-112,-140v-79,0,-118,60,-118,152v0,93,40,150,120,150","w":603},"Q":{"d":"724,-339v0,146,-81,267,-204,320r38,142r-130,32r-35,-147v-213,14,-365,-146,-365,-347v0,-198,145,-348,348,-348v203,0,348,150,348,348xm376,-97v115,0,201,-83,201,-242v0,-159,-86,-241,-201,-241v-115,0,-201,82,-201,241v0,159,86,242,201,242","w":752},"S":{"d":"71,-488v0,-136,118,-200,244,-200v69,0,126,10,161,24r-14,106v-67,-29,-251,-47,-251,55v0,58,42,80,105,98v110,32,183,79,183,196v0,207,-267,258,-454,193r14,-108v62,19,120,27,172,27v75,0,128,-32,128,-90v0,-56,-37,-82,-102,-100v-104,-29,-186,-80,-186,-201","w":545},"R":{"d":"200,-377v97,7,174,-10,174,-101v0,-90,-85,-109,-174,-93r0,194xm353,-186v-15,-87,-62,-93,-153,-88r0,274r-134,0r0,-666v69,-12,150,-16,205,-16v174,0,257,78,257,178v0,94,-70,140,-130,166v51,20,76,63,93,141v13,59,33,131,54,197r-148,0v-15,-57,-35,-133,-44,-186"},"r":{"d":"355,-498r-3,130v-44,2,-76,10,-103,29v-31,22,-49,57,-49,155r0,184r-134,0r0,-488r131,0v3,28,-2,63,5,87v28,-54,89,-93,153,-97","w":358,"k":{"v":-22,"t":-10,"y":-22}},"s":{"d":"186,-187v-82,-23,-133,-61,-133,-153v0,-95,82,-158,188,-158v43,0,86,8,121,22r-14,100v-40,-20,-156,-39,-156,24v0,26,14,42,47,51v103,29,144,66,144,148v-1,156,-212,197,-353,137r14,-101v44,16,87,24,129,24v49,0,71,-17,71,-42v0,-26,-21,-41,-58,-52","w":416},"T":{"d":"575,-678r0,107r-214,0r0,571r-134,0r0,-571r-212,0r0,-107r560,0","w":590,"k":{"A":84,"c":92,"d":92,"e":92,"g":92,"J":98,"m":96,"n":96,"o":92,"x":72,"w":69,"v":72,"u":96,"s":98,"r":96,"q":92,"y":62,"z":88,"a":86}},"t":{"d":"364,-488r0,103r-124,0r0,215v-4,78,60,87,122,69r14,98v-121,31,-270,18,-270,-138r0,-244r-83,0r0,-103r83,0r0,-113r134,0r0,113r124,0","w":405},"u":{"d":"370,-238r0,-250r134,0r0,488r-131,0v-3,-19,2,-46,-5,-62v-33,44,-81,72,-145,72v-115,0,-166,-68,-166,-186r0,-312r134,0r0,293v0,66,23,98,77,98v71,0,102,-54,102,-141","w":570},"U":{"d":"583,-233v0,160,-117,243,-261,243v-144,0,-259,-83,-259,-224r0,-464r134,0r0,454v0,86,59,128,127,128v69,0,133,-36,133,-128r0,-454r126,0r0,445","w":643},"V":{"d":"468,-678r134,0r-234,678r-138,0r-234,-678r142,0r89,279v22,70,50,160,75,272r3,0v53,-225,103,-354,163,-551","w":593,"k":{"A":76,"c":42,"d":42,"e":42,"g":42,"J":62,"o":42,"s":56,"q":42,"z":36,"a":52}},"v":{"d":"379,-488r135,0r-188,488r-139,0r-188,-488r144,0v39,123,89,236,116,371r3,0v28,-135,78,-247,117,-371","w":510},"W":{"d":"784,-678r132,0r-203,678r-135,0v-44,-195,-93,-313,-119,-544r-3,0v-25,236,-75,345,-119,544r-134,0r-203,-678r140,0v45,190,103,330,130,549r3,0v24,-220,79,-358,122,-549r134,0v44,189,97,330,122,548r3,0v26,-218,85,-359,130,-548","w":911,"k":{"A":68,"c":37,"d":37,"e":37,"g":37,"J":57,"o":37,"s":51,"q":37,"z":31,"a":47}},"w":{"d":"645,-488r135,0r-167,488r-138,0v-29,-125,-69,-228,-82,-372r-3,0v-12,145,-53,246,-81,372r-139,0r-167,-488r144,0v29,118,83,257,94,381r3,0v9,-125,59,-263,84,-381r136,0v27,118,74,257,85,381r3,0v9,-124,65,-264,93,-381","w":780},"x":{"d":"322,-256v57,89,123,169,182,256r-164,0r-94,-158r-3,0r-93,158r-154,0r177,-246v-54,-85,-117,-160,-174,-242r164,0r85,144r3,0r86,-144r154,0","w":503},"X":{"d":"542,-678r-195,327r210,351r-158,0r-127,-235r-2,0r-126,235r-148,0r205,-343r-200,-335r158,0r116,218r2,0r117,-218r148,0","w":549},"Y":{"d":"425,-678r144,0r-217,387r0,291r-134,0r0,-281r-222,-397r154,0r136,274r2,0","w":560,"k":{"A":88,"c":78,"d":78,"e":78,"g":78,"J":72,"m":62,"n":62,"o":78,"u":62,"s":86,"q":78,"a":86}},"P":{"d":"200,-572r0,221v99,8,175,-11,177,-113v2,-100,-80,-124,-177,-108xm66,0r0,-666v67,-12,147,-17,195,-17v168,0,260,80,260,204v0,180,-145,255,-321,238r0,241r-134,0","w":534,"k":{"c":12,"d":12,"e":12,"g":12,"J":76,"o":12,"q":12,"a":28}},"p":{"d":"200,-431v49,-43,88,-67,161,-67v133,0,210,104,210,245v0,146,-86,263,-216,263v-71,0,-110,-23,-155,-67r0,253r-134,0r0,-684r131,0xm310,-395v-79,-1,-110,67,-110,162v0,86,43,140,112,140v79,0,118,-60,118,-152v0,-93,-40,-150,-120,-150","w":603},"N":{"d":"653,-678r0,678r-189,0v-98,-192,-193,-331,-279,-546r-3,0v13,204,5,345,7,546r-126,0r0,-678r190,0v98,194,190,329,278,547r3,0v-15,-206,-4,-345,-7,-547r126,0","w":716},"O":{"d":"376,-687v203,0,348,150,348,348v0,198,-145,349,-348,349v-203,0,-348,-151,-348,-349v0,-198,145,-348,348,-348xm376,-97v115,0,201,-83,201,-242v0,-159,-86,-241,-201,-241v-115,0,-201,82,-201,241v0,159,86,242,201,242","w":752},"o":{"d":"281,-498v155,0,249,113,249,254v0,141,-94,254,-249,254v-155,0,-249,-113,-249,-254v0,-141,94,-254,249,-254xm281,-93v75,0,108,-64,108,-151v0,-87,-33,-151,-108,-151v-75,0,-108,64,-108,151v0,87,33,151,108,151","w":562},"n":{"d":"200,-250r0,250r-134,0r0,-488r131,0v3,19,-2,46,5,62v33,-44,81,-72,145,-72v115,0,166,68,166,186r0,312r-134,0r0,-293v0,-66,-23,-98,-77,-98v-71,0,-102,54,-102,141","w":570},"M":{"d":"598,-654r164,0r23,654r-134,0r-6,-327v-1,-65,0,-105,5,-160r-3,0v-32,160,-108,318,-159,467r-140,0v-49,-147,-123,-308,-155,-463r-3,0v14,147,-2,326,-1,483r-126,0r23,-654r164,0r116,327v16,45,50,141,55,195r3,0v39,-189,118,-350,174,-522","w":851},"m":{"d":"477,-407r3,0v39,-62,85,-91,150,-91v104,0,152,63,152,181r0,317r-134,0r0,-298v0,-61,-22,-93,-72,-93v-56,0,-85,54,-85,161r0,230r-134,0r0,-298v0,-61,-22,-93,-72,-93v-54,0,-85,54,-85,161r0,230r-134,0r0,-488r131,0v3,19,-2,46,5,62v27,-44,71,-72,134,-72v70,0,120,29,141,91","w":839},"L":{"d":"66,-678r134,0r0,575r305,0r0,103r-439,0r0,-678","w":513},"l":{"d":"200,0r-134,0r0,-720r134,0r0,720","w":266},"k":{"d":"527,-488r-204,206r219,282r-169,0r-141,-186v-15,6,-20,22,-32,31r0,155r-134,0r0,-720r134,0r0,420r3,0r148,-188r176,0","w":521},"K":{"d":"596,-678r-288,318r310,360r-184,0r-211,-266v-12,4,-14,17,-23,24r0,242r-134,0r0,-678r134,0r0,277r4,0r224,-277r168,0","w":595},"J":{"d":"330,-238v7,215,-163,279,-346,234r14,-104v27,8,53,11,81,11v94,0,117,-51,117,-135r0,-446r134,0r0,440","w":381},"j":{"d":"147,-530v-43,0,-77,-34,-77,-77v0,-42,34,-77,77,-77v42,0,77,35,77,77v0,43,-35,77,-77,77xm214,-39v0,178,-115,234,-261,245r-14,-102v87,-11,141,-42,141,-137r0,-455r134,0r0,449","w":280},"i":{"d":"66,0r0,-488r134,0r0,488r-134,0xm133,-530v-43,0,-77,-34,-77,-77v0,-42,34,-77,77,-77v42,0,77,35,77,77v0,43,-35,77,-77,77","w":266},"I":{"d":"200,0r-134,0r0,-678r134,0r0,678","w":266},"H":{"d":"507,-678r134,0r0,678r-134,0r0,-296r-307,0r0,296r-134,0r0,-678r134,0r0,275r307,0r0,-275","w":707},"h":{"d":"200,-250r0,250r-134,0r0,-720r134,0r0,294r2,0v33,-44,81,-72,145,-72v115,0,166,68,166,186r0,312r-134,0r0,-293v0,-66,-23,-98,-77,-98v-71,0,-102,54,-102,141","w":570},"g":{"d":"535,-488r0,416v0,182,-115,278,-290,278v-55,0,-119,-10,-174,-35r14,-102v56,24,106,34,154,34v113,2,172,-63,160,-166v-46,46,-89,67,-159,67v-128,0,-208,-102,-208,-243v0,-146,88,-259,214,-259v70,0,109,24,155,67r3,-57r131,0xm289,-395v-76,0,-116,56,-116,148v0,93,41,148,118,148v77,0,110,-64,110,-156v0,-86,-43,-140,-112,-140","w":601},"G":{"d":"411,-581v-142,0,-239,78,-239,242v-1,206,145,274,314,229r0,-151r-122,0r0,-107r256,0r0,338v-274,94,-593,37,-592,-298v0,-231,174,-360,372,-360v84,0,152,13,200,32r-14,107v-53,-19,-117,-32,-175,-32","w":673},"F":{"d":"200,0r-134,0r0,-678r395,0r0,107r-261,0r0,178r227,0r0,107r-227,0r0,286","w":470},"f":{"d":"104,-488v-10,-186,144,-278,312,-228r-14,98v-89,-29,-176,12,-164,130r120,0r0,103r-120,0r0,385r-134,0r0,-385r-81,0r0,-103r81,0","w":375},"E":{"d":"200,-107r270,0r0,107r-404,0r0,-678r395,0r0,107r-261,0r0,167r227,0r0,107r-227,0r0,190","w":498},"e":{"d":"285,-498v150,0,225,138,196,292r-317,0v2,131,174,131,275,84r14,100v-47,21,-97,32,-168,32v-151,0,-253,-84,-253,-241v0,-161,99,-267,253,-267xm271,-395v-53,0,-92,41,-102,97r189,0v-2,-50,-29,-97,-87,-97","w":522},"d":{"d":"403,-57v-49,43,-89,67,-161,67v-133,0,-210,-104,-210,-245v0,-146,86,-263,216,-263v70,0,109,24,155,67r0,-289r134,0r0,720r-131,0xm293,-93v79,1,110,-67,110,-162v0,-86,-43,-140,-112,-140v-79,0,-118,60,-118,152v0,93,40,150,120,150","w":603},"D":{"d":"66,-667v62,-9,149,-16,218,-16v242,0,401,104,401,317v0,249,-184,371,-414,371v-67,0,-146,-4,-205,-13r0,-659xm200,-570r0,465v194,20,335,-28,341,-241v5,-184,-150,-255,-341,-224","w":713},"C":{"d":"28,-333v0,-225,171,-355,375,-355v87,0,152,13,200,32r-14,107v-49,-19,-117,-32,-175,-32v-142,0,-242,72,-242,242v0,161,98,242,232,242v60,0,126,-13,177,-34r14,108v-53,21,-130,33,-218,33v-191,0,-349,-113,-349,-343","w":625},"c":{"d":"175,-242v0,155,149,175,255,124r14,100v-48,19,-92,28,-165,28v-147,0,-247,-89,-247,-241v0,-237,235,-314,417,-238r-14,100v-31,-15,-78,-26,-118,-26v-90,0,-142,53,-142,153","w":474},"b":{"d":"200,-431v49,-43,88,-67,161,-67v133,0,210,104,210,245v0,146,-86,263,-216,263v-71,0,-110,-23,-155,-67r-3,57r-131,0r0,-720r134,0r0,289xm310,-395v-79,-1,-110,67,-110,162v0,86,43,140,112,140v79,0,118,-60,118,-152v0,-93,-40,-150,-120,-150","w":603},"A":{"d":"478,0r-63,-199r-205,0r-62,199r-134,0r234,-678r138,0r234,678r-142,0xm311,-554v-27,115,-49,182,-70,248r143,0v-21,-66,-43,-133,-70,-248r-3,0","w":632,"k":{"Y":88,"w":39,"W":68,"v":44,"V":76,"T":84,"y":26}},"\u00a5":{"d":"526,-658r-133,265r99,0r0,82r-144,0r0,54r144,0r0,82r-144,0r0,175r-134,0r0,-175r-144,0r0,-82r144,0r0,-54r-144,0r0,-82r94,0r-132,-265r148,0v36,91,77,170,102,275r3,0v24,-106,65,-184,101,-275r140,0"},"\u00c4":{"d":"478,0r-63,-199r-205,0r-62,199r-134,0r234,-678r138,0r234,678r-142,0xm311,-554v-27,115,-49,182,-70,248r143,0v-21,-66,-43,-133,-70,-248r-3,0xm420,-709v-38,0,-68,-30,-68,-68v0,-38,30,-68,68,-68v38,0,68,30,68,68v0,38,-30,68,-68,68xm218,-709v-38,0,-68,-30,-68,-68v0,-38,30,-68,68,-68v37,0,68,30,68,68v0,38,-31,68,-68,68","w":632},"\u00d6":{"d":"376,-687v203,0,348,150,348,348v0,198,-145,349,-348,349v-203,0,-348,-151,-348,-349v0,-198,145,-348,348,-348xm376,-97v115,0,201,-83,201,-242v0,-159,-86,-241,-201,-241v-115,0,-201,82,-201,241v0,159,86,242,201,242xm477,-709v-38,0,-68,-30,-68,-68v0,-38,30,-68,68,-68v38,0,68,30,68,68v0,38,-30,68,-68,68xm275,-709v-38,0,-68,-30,-68,-68v0,-38,30,-68,68,-68v38,0,68,30,68,68v0,38,-30,68,-68,68","w":752},"\u00dc":{"d":"583,-233v0,160,-117,243,-261,243v-144,0,-259,-83,-259,-224r0,-464r134,0r0,454v0,86,59,128,127,128v69,0,133,-36,133,-128r0,-454r126,0r0,445xm428,-709v-38,0,-68,-30,-68,-68v0,-38,30,-68,68,-68v38,0,68,30,68,68v0,38,-30,68,-68,68xm226,-709v-38,0,-68,-30,-68,-68v0,-38,30,-68,68,-68v38,0,68,30,68,68v0,38,-30,68,-68,68","w":643},"\u00e4":{"d":"254,-498v137,0,202,65,202,174r0,324r-131,0v-3,-19,2,-46,-5,-61v-25,40,-66,71,-133,71v-86,0,-157,-65,-157,-162v0,-131,150,-181,292,-159v6,-108,-145,-95,-225,-55r-14,-100v56,-22,111,-32,171,-32xm236,-93v54,0,88,-43,86,-138v-66,-11,-152,-2,-152,69v0,40,24,69,66,69xm365,-539v-38,0,-68,-30,-68,-68v0,-38,30,-68,68,-68v38,0,68,30,68,68v0,38,-30,68,-68,68xm163,-539v-38,0,-68,-30,-68,-68v0,-38,30,-68,68,-68v37,0,68,30,68,68v0,38,-31,68,-68,68","w":515},"\u00eb":{"d":"285,-498v150,0,225,138,196,292r-317,0v2,131,174,131,275,84r14,100v-47,21,-97,32,-168,32v-151,0,-253,-84,-253,-241v0,-161,99,-267,253,-267xm169,-298r189,0v-2,-50,-29,-97,-87,-97v-53,0,-92,41,-102,97xm369,-539v-38,0,-68,-30,-68,-68v0,-38,30,-68,68,-68v38,0,68,30,68,68v0,38,-30,68,-68,68xm167,-539v-38,0,-68,-30,-68,-68v0,-38,30,-68,68,-68v38,0,68,30,68,68v0,38,-30,68,-68,68","w":522},"\u00ef":{"d":"54,0r0,-488r134,0r0,488r-134,0xm222,-539v-38,0,-68,-30,-68,-68v0,-38,30,-68,68,-68v38,0,68,30,68,68v0,38,-30,68,-68,68xm20,-539v-38,0,-68,-30,-68,-68v0,-38,30,-68,68,-68v37,0,68,30,68,68v0,38,-31,68,-68,68","w":242},"\u00fc":{"d":"370,-238r0,-250r134,0r0,488r-131,0v-3,-19,2,-46,-5,-62v-33,44,-81,72,-145,72v-115,0,-166,-68,-166,-186r0,-312r134,0r0,293v0,66,23,98,77,98v71,0,102,-54,102,-141xm384,-539v-38,0,-68,-30,-68,-68v0,-38,30,-68,68,-68v38,0,68,30,68,68v0,38,-30,68,-68,68xm182,-539v-38,0,-68,-30,-68,-68v0,-38,30,-68,68,-68v37,0,68,30,68,68v0,38,-31,68,-68,68","w":570},"\u00cf":{"d":"200,0r0,-678r-134,0r0,678r134,0xm234,-709v-38,0,-68,-30,-68,-68v0,-38,30,-68,68,-68v38,0,68,30,68,68v0,38,-30,68,-68,68xm32,-709v-38,0,-68,-30,-68,-68v0,-38,30,-68,68,-68v38,0,68,30,68,68v0,38,-30,68,-68,68","w":266},"\u00cb":{"d":"200,-107r270,0r0,107r-404,0r0,-678r395,0r0,107r-261,0r0,167r227,0r0,107r-227,0r0,190xm378,-709v-38,0,-68,-30,-68,-68v0,-38,30,-68,68,-68v38,0,68,30,68,68v0,38,-30,68,-68,68xm176,-709v-38,0,-68,-30,-68,-68v0,-38,30,-68,68,-68v38,0,68,30,68,68v0,38,-30,68,-68,68","w":498},"\u00ff":{"d":"339,-35v-69,181,-148,231,-274,241r-14,-102v82,-10,117,-40,137,-102r-189,-490r144,0v39,123,89,236,116,371r3,0v28,-135,78,-247,117,-371r135,0xm368,-539v-38,0,-68,-30,-68,-68v0,-38,30,-68,68,-68v38,0,68,30,68,68v0,38,-30,68,-68,68xm166,-539v-38,0,-68,-30,-68,-68v0,-38,30,-68,68,-68v38,0,68,30,68,68v0,38,-30,68,-68,68","w":510},"\u0178":{"d":"425,-678r144,0r-217,387r0,291r-134,0r0,-281r-222,-397r154,0r136,274r2,0xm388,-709v-38,0,-68,-30,-68,-68v0,-38,30,-68,68,-68v38,0,68,30,68,68v0,38,-30,68,-68,68xm186,-709v-38,0,-68,-30,-68,-68v0,-38,30,-68,68,-68v37,0,68,30,68,68v0,38,-31,68,-68,68","w":560},"\u00f6":{"d":"281,-498v155,0,249,113,249,254v0,141,-94,254,-249,254v-155,0,-249,-113,-249,-254v0,-141,94,-254,249,-254xm281,-93v75,0,108,-64,108,-151v0,-87,-33,-151,-108,-151v-75,0,-108,64,-108,151v0,87,33,151,108,151xm382,-539v-38,0,-68,-30,-68,-68v0,-38,30,-68,68,-68v38,0,68,30,68,68v0,38,-30,68,-68,68xm180,-539v-38,0,-68,-30,-68,-68v0,-38,30,-68,68,-68v37,0,68,30,68,68v0,38,-31,68,-68,68","w":562},"\u00a0":{"w":196}}});
